


    // !!! This file is generated using emlearn !!!

    #include <eml_trees.h>
    

static const EmlTreesNode model_nodes[1309] = {
  { 9, -1584, 1, 46 },
  { 7, -1978, 1, 24 },
  { 6, 1675, 1, 20 },
  { 9, -3775, 1, 5 },
  { 1, -3443, -1, 1 },
  { 9, -6417, 1, 2 },
  { 7, -4233, -2, -3 },
  { 3, 11298, -4, -5 },
  { 6, -1058, 1, 13 },
  { 2, -4308, 1, 5 },
  { 8, -995, 1, -6 },
  { 6, -3291, 1, 2 },
  { 1, -6012, -7, -8 },
  { 0, -1755, -9, -10 },
  { 3, 2121, 1, 5 },
  { 9, -2784, -11, 1 },
  { 0, -4319, -12, 1 },
  { 7, -3550, -13, 1 },
  { 9, -1763, -14, -15 },
  { 8, 2201, 1, -16 },
  { 6, -4738, -17, -18 },
  { 8, 968, -19, -20 },
  { 7, -4271, -21, 1 },
  { 0, -1907, -22, 1 },
  { 9, -3192, -23, -24 },
  { 2, -328, 1, 15 },
  { 5, -3151, 1, 2 },
  { 1, -1630, -25, -26 },
  { 6, -2482, 1, 6 },
  { 7, 1758, 1, 3 },
  { 9, -2900, -27, 1 },
  { 7, -458, -20, -4 },
  { 0, -619, 1, -28 },
  { 8, 1850, -29, -7 },
  { 4, -1196, 1, -30 },
  { 1, -4135, -31, 1 },
  { 6, -347, -32, 1 },
  { 1, 1508, 1, 2 },
  { 3, 554, -33, -34 },
  { 9, -3577, -35, -36 },
  { 3, -1463, 1, 4 },
  { 6, 468, -10, 1 },
  { 6, 4857, 1, -37 },
  { 2, 2248, -38, -35 },
  { 5, -140, -39, 1 },
  { 4, 2765, -40, -41 },
  { 7, 1533, 1, 56 },
  { 7, -1514, 1, 20 },
  { 1, 1282, 1, 10 },
  { 2, 204, 1, 8 },
  { 5, 100, 1, 5 },
  { 7, -3382, 1, 2 },
  { 6, -1851, -42, -43 },
  { 3, -167, 1, -44 },
  { 4, -1342, -45, -46 },
  { 2, -1557, 1, -3 },
  { 9, 3617, -47, -48 },
  { 6, 854, -49, -50 },
  { 2, -1536, 1, 5 },
  { 1, 2696, 1, 2 },
  { 1, 1994, -19, -3 },
  { 6, -1612, 1, -12 },
  { 1, 3177, -47, -51 },
  { 0, -2679, -52, 1 },
  { 1, 2830, -40, 1 },
  { 2, 1333, -53, 1 },
  { 2, 1698, -54, -55 },
  { 1, 2184, 1, 16 },
  { 2, -2385, -56, 1 },
  { 3, -2633, 1, 4 },
  { 4, -1212, -57, 1 },
  { 2, 1625, 1, -58 },
  { 8, -4019, -59, -60 },
  { 7, -697, 1, 5 },
  { 0, -2593, -61, 1 },
  { 3, -1147, 1, 2 },
  { 8, -1838, -62, -63 },
  { 2, -447, -64, -65 },
  { 7, 29, 1, 4 },
  { 2, -1867, -66, 1 },
  { 4, -690, -67, 1 },
  { 2, -150, -68, -69 },
  { 0, 3510, -7, -70 },
  { 2, 8273, 1, 18 },
  { 4, 2001, 1, 6 },
  { 5, 4048, 1, 2 },
  { 9, 2622, -21, -71 },
  { 6, -2562, -72, 1 },
  { 0, 6138, -73, 1 },
  { 9, -625, -61, -74 },
  { 1, 3425, 1, 8 },
  { 1, 2393, 1, 2 },
  { 2, 541, -24, -75 },
  { 8, -1385, -76, 1 },
  { 3, -4288, -2, 1 },
  { 5, -1047, 1, 2 },
  { 8, 950, -15, -77 },
  { 2, -576, -78, -79 },
  { 6, 4439, 1, -80 },
  { 1, 4081, 1, -81 },
  { 0, 78, -82, -83 },
  { 9, 3435, -71, -84 },
  { 9, 3852, 1, 19 },
  { 1, 3491, 1, 17 },
  { 1, -5459, -85, 1 },
  { 6, -2108, 1, 3 },
  { 8, -1022, -10, 1 },
  { 5, -618, -86, -87 },
  { 9, 1131, 1, 9 },
  { 7, 9181, 1, -88 },
  { 8, 3488, 1, -50 },
  { 9, 676, 1, 5 },
  { 0, 5673, 1, -86 },
  { 8, 979, 1, -77 },
  { 2, -1618, -89, 1 },
  { 5, 1211, -11, -90 },
  { 4, -326, -8, -91 },
  { 1, -1774, -92, 1 },
  { 2, 2114, -93, 1 },
  { 0, 5809, -94, -95 },
  { 0, 4168, -96, -93 },
  { 7, 3183, 1, 3 },
  { 1, -502, -97, 1 },
  { 9, 5664, -98, -99 },
  { 6, 4095, 1, -100 },
  { 2, 5867, 1, -101 },
  { 2, 3918, 1, 4 },
  { 5, 946, 1, -102 },
  { 0, -944, -103, 1 },
  { 1, 2892, -104, -105 },
  { 2, 4658, -106, -107 },
  { 7, -2476, 1, 26 },
  { 3, -1262, 1, 4 },
  { 8, -3931, -22, 1 },
  { 3, -2468, -21, 1 },
  { 5, -1918, -11, -23 },
  { 4, 777, 1, 16 },
  { 9, -3648, 1, 6 },
  { 2, -851, 1, -5 },
  { 9, -4026, 1, 3 },
  { 3, 2055, -2, 1 },
  { 7, -3806, -4, -3 },
  { 1, 369, -7, -16 },
  { 9, -1067, 1, 7 },
  { 3, 2763, 1, -6 },
  { 0, 1428, 1, -19 },
  { 3, 2216, 1, 3 },
  { 0, -1678, -15, 1 },
  { 8, -974, -13, -24 },
  { 1, -1345, -8, -18 },
  { 1, -5030, -42, 1 },
  { 3, 2680, -43, -19 },
  { 8, 4505, 1, -1 },
  { 0, -725, 1, 3 },
  { 5, -3054, 1, -46 },
  { 0, -4610, -9, -12 },
  { 6, -333, -48, -12 },
  { 2, 1390, 1, 69 },
  { 2, -2240, 1, 15 },
  { 7, 2762, 1, 11 },
  { 6, -884, 1, 8 },
  { 3, 211, 1, 2 },
  { 1, 931, -56, -10 },
  { 7, -621, 1, -27 },
  { 2, -3778, 1, 2 },
  { 7, -2203, -10, -44 },
  { 6, -4586, -3, 1 },
  { 8, -936, -14, -51 },
  { 6, 237, 1, -45 },
  { 6, -313, -77, -47 },
  { 7, 4163, 1, 2 },
  { 0, 717, -97, -35 },
  { 6, 1065, -32, -36 },
  { 7, 127, 1, 29 },
  { 1, 1600, 1, 17 },
  { 5, -3851, -61, 1 },
  { 4, 3239, 1, 7 },
  { 1, -6344, -40, 1 },
  { 3, 3458, 1, -17 },
  { 9, 3918, 1, -64 },
  { 7, -548, 1, -67 },
  { 5, 473, -34, 1 },
  { 6, 1182, -49, -57 },
  { 6, 4529, 1, -38 },
  { 7, -1365, 1, 4 },
  { 9, -1628, 1, 2 },
  { 2, -513, -20, -30 },
  { 5, 1926, -3, -50 },
  { 9, -1467, -20, 1 },
  { 7, -674, -65, 1 },
  { 3, -442, -69, -68 },
  { 7, -962, 1, 8 },
  { 2, -393, 1, 5 },
  { 8, -520, 1, 3 },
  { 6, -691, 1, -2 },
  { 4, -1274, -47, -40 },
  { 6, -1232, -52, -78 },
  { 2, 1065, 1, -21 },
  { 8, -885, -76, -53 },
  { 6, -399, 1, 2 },
  { 7, -530, -66, -24 },
  { 2, 711, -74, -75 },
  { 8, 3795, 1, 23 },
  { 8, 1303, 1, 19 },
  { 2, -939, 1, 9 },
  { 3, 3424, 1, 7 },
  { 3, -56, 1, 5 },
  { 3, -1746, -15, 1 },
  { 8, -3591, 1, 2 },
  { 8, -4416, -26, -89 },
  { 1, -5145, -31, -25 },
  { 0, -2350, -86, -29 },
  { 1, -357, -28, -4 },
  { 4, -2411, 1, 3 },
  { 0, 1230, 1, -85 },
  { 5, -1238, -39, -103 },
  { 8, -396, 1, 3 },
  { 2, -658, -93, 1 },
  { 6, 1833, -82, -59 },
  { 3, -2259, 1, 2 },
  { 1, 1256, -11, -90 },
  { 9, 3851, -81, -98 },
  { 3, -2324, 1, -7 },
  { 6, 1039, -33, 1 },
  { 5, 482, -79, -91 },
  { 2, 893, -7, -50 },
  { 7, 4282, 1, 29 },
  { 1, -1656, 1, 7 },
  { 4, -2418, 1, 2 },
  { 6, -71, -8, -10 },
  { 2, 4724, 1, -100 },
  { 0, 797, -35, 1 },
  { 6, 5757, 1, -62 },
  { 7, 2781, -63, -92 },
  { 9, 2046, 1, 10 },
  { 1, 1582, 1, 3 },
  { 6, 2863, 1, -37 },
  { 8, 3101, -60, -95 },
  { 5, 8135, 1, -61 },
  { 2, 2926, 1, 4 },
  { 8, -1237, -72, 1 },
  { 9, 1852, 1, -58 },
  { 5, 2091, -54, -55 },
  { 5, -217, -77, -80 },
  { 5, 4581, 1, 10 },
  { 7, 3010, 1, 7 },
  { 1, -308, 1, 2 },
  { 5, 972, -99, -87 },
  { 6, 1796, 1, 3 },
  { 6, -100, 1, -93 },
  { 1, 4515, -83, -71 },
  { 4, -287, -84, -71 },
  { 1, 3416, 1, -107 },
  { 1, 2014, -94, -105 },
  { 8, 7, -73, -70 },
  { 0, 5868, 1, 7 },
  { 3, -3154, -96, 1 },
  { 9, 3859, -88, 1 },
  { 6, 2016, 1, 2 },
  { 8, 2856, -101, -104 },
  { 5, 211, -105, 1 },
  { 7, 6022, -106, -102 },
  { 3, -1303, -86, -41 },
  { 2, 1403, 1, 94 },
  { 2, 882, 1, 87 },
  { 2, -776, 1, 58 },
  { 7, 1288, 1, 47 },
  { 5, -2762, 1, 15 },
  { 2, -2670, 1, 8 },
  { 4, -2411, 1, 4 },
  { 7, -3340, 1, -14 },
  { 8, -2097, 1, -7 },
  { 5, -6077, -42, -8 },
  { 5, -4733, 1, -44 },
  { 3, -3695, -22, 1 },
  { 2, -3914, -9, -12 },
  { 7, -2159, 1, 2 },
  { 8, -1203, -3, -2 },
  { 6, -2180, 1, 3 },
  { 6, -2509, 1, -26 },
  { 2, -1225, -61, -25 },
  { 8, 39, -2, -15 },
  { 2, -1954, 1, 21 },
  { 9, -3683, 1, 5 },
  { 6, -2733, 1, 3 },
  { 9, -5244, 1, -16 },
  { 6, -4377, -4, -3 },
  { 0, -1636, -1, -27 },
  { 5, 1506, 1, 14 },
  { 1, -1059, 1, 3 },
  { 0, -1017, -6, 1 },
  { 1, -2779, -13, -47 },
  { 1, 2016, 1, 6 },
  { 5, -645, 1, 3 },
  { 6, -1702, -56, 1 },
  { 0, 209, -46, -45 },
  { 8, 718, -19, 1 },
  { 0, 920, -48, -64 },
  { 7, -2848, 1, 2 },
  { 8, -3289, -18, -12 },
  { 2, -2565, -77, 1 },
  { 1, 3584, -47, -51 },
  { 3, 2501, -19, -10 },
  { 5, 1506, 1, 8 },
  { 3, 1153, 1, 6 },
  { 4, -2856, 1, 3 },
  { 7, -3680, -43, 1 },
  { 5, -1666, -15, -34 },
  { 3, -690, -78, 1 },
  { 2, -1323, -66, -40 },
  { 7, -1266, -52, -20 },
  { 5, 2413, 1, -17 },
  { 4, -1109, -4, -3 },
  { 7, 1543, -31, 1 },
  { 5, -3568, -10, 1 },
  { 9, 2204, 1, -97 },
  { 6, -635, 1, 5 },
  { 9, -3603, -32, 1 },
  { 9, -1696, 1, -86 },
  { 0, -463, 1, -28 },
  { 5, -2663, -7, -29 },
  { 0, 2049, -89, 1 },
  { 3, -1987, -35, -36 },
  { 7, 864, 1, 21 },
  { 6, 302, 1, 9 },
  { 2, 23, 1, 4 },
  { 0, 3854, 1, -67 },
  { 7, -1569, 1, -68 },
  { 1, -1605, -5, -20 },
  { 7, -171, 1, 3 },
  { 9, 856, -11, 1 },
  { 5, 398, -76, -49 },
  { 9, 2727, -24, -7 },
  { 4, -2159, 1, 4 },
  { 8, 1628, 1, -74 },
  { 2, -427, -23, 1 },
  { 3, -1269, -21, -40 },
  { 3, -4837, -75, 1 },
  { 6, 2664, 1, 5 },
  { 7, 21, 1, -79 },
  { 2, -375, -30, 1 },
  { 5, 2217, -50, 1 },
  { 5, 3591, -65, -69 },
  { 5, -846, -38, -59 },
  { 3, 641, 1, 6 },
  { 8, -1127, 1, 2 },
  { 2, -445, -93, -82 },
  { 9, -178, 1, -91 },
  { 3, -1037, 1, -81 },
  { 3, -3655, -90, -33 },
  { 7, 1970, -85, -98 },
  { 8, 3071, 1, -50 },
  { 3, -2786, 1, 3 },
  { 8, -147, -57, 1 },
  { 5, 153, -53, -11 },
  { 1, 698, 1, -21 },
  { 1, -435, -39, -103 },
  { 4, -1437, 1, 18 },
  { 9, -1202, 1, 4 },
  { 8, 899, 1, 2 },
  { 6, 1313, -10, -24 },
  { 9, -2040, -37, -77 },
  { 5, 2920, 1, 8 },
  { 1, 266, 1, 3 },
  { 7, 2863, 1, -8 },
  { 0, -1548, -87, -99 },
  { 0, -310, 1, -93 },
  { 1, 3195, 1, -107 },
  { 8, 951, 1, -101 },
  { 9, 3612, -94, -84 },
  { 8, -3742, -71, 1 },
  { 5, 8081, 1, -61 },
  { 8, -116, 1, 2 },
  { 9, 2626, -72, -73 },
  { 5, 5670, -70, -86 },
  { 9, 5319, 1, 18 },
  { 7, 427, 1, 8 },
  { 2, 7917, 1, -71 },
  { 2, 1892, 1, 2 },
  { 5, 1387, -60, -54 },
  { 5, -2771, -35, 1 },
  { 6, 2727, 1, 2 },
  { 6, 1049, -55, -58 },
  { 2, 2296, -63, -62 },
  { 3, -2826, 1, 2 },
  { 2, 2064, -96, -105 },
  { 1, 5239, 1, -80 },
  { 2, 2168, -105, 1 },
  { 7, 3166, 1, 2 },
  { 5, 5289, -83, -95 },
  { 0, 3402, -88, 1 },
  { 7, 4024, -92, 1 },
  { 9, 2945, -41, -100 },
  { 0, -160, -104, 1 },
  { 3, -1398, -106, -102 },
  { 2, 1635, 1, 97 },
  { 2, -2017, 1, 33 },
  { 0, 1345, 1, 28 },
  { 5, -1838, 1, 19 },
  { 0, -3197, 1, 10 },
  { 4, 223, 1, 7 },
  { 6, -2925, 1, -14 },
  { 1, -4251, 1, 3 },
  { 8, -1522, 1, -7 },
  { 3, -173, -42, -8 },
  { 5, -2284, 1, -16 },
  { 1, 377, -4, -3 },
  { 5, -4492, 1, -44 },
  { 2, -4494, -9, -12 },
  { 9, -4120, 1, 4 },
  { 9, -6291, 1, 2 },
  { 6, -3186, -3, -2 },
  { 7, -799, -1, -27 },
  { 1, 1372, 1, -77 },
  { 1, 179, -22, 1 },
  { 2, -3255, -10, 1 },
  { 0, -1339, -56, -46 },
  { 9, 5308, 1, -97 },
  { 0, 563, 1, 5 },
  { 3, 2374, 1, 2 },
  { 6, -2078, -18, -32 },
  { 1, 2225, -6, 1 },
  { 4, -2184, -47, -51 },
  { 4, 407, 1, -12 },
  { 3, 1581, -45, -10 },
  { 7, -1963, -19, 1 },
  { 2, -2991, 1, 2 },
  { 9, -3464, -35, -36 },
  { 8, 3207, -64, -47 },
  { 2, -252, 1, 34 },
  { 4, -228, 1, 20 },
  { 6, -1060, 1, 13 },
  { 2, -1533, 1, 6 },
  { 3, 1392, -15, 1 },
  { 1, -521, 1, 2 },
  { 9, -2120, -28, -13 },
  { 7, 1151, 1, -29 },
  { 7, -1011, -19, -4 },
  { 1, -5499, -85, 1 },
  { 5, 120, 1, 4 },
  { 8, 2609, 1, -7 },
  { 3, 678, 1, -86 },
  { 8, -2862, -26, -25 },
  { 8, -1467, -17, -5 },
  { 1, 1385, 1, -74 },
  { 1, -167, 1, -43 },
  { 1, -3577, 1, 2 },
  { 7, 1880, -31, -89 },
  { 5, 448, 1, -23 },
  { 5, -711, -33, -34 },
  { 9, -1907, 1, 2 },
  { 8, 330, -30, -20 },
  { 7, 1053, 1, -93 },
  { 1, 4418, 1, -52 },
  { 1, 1484, 1, 4 },
  { 1, 102, -3, 1 },
  { 1, 394, -68, 1 },
  { 5, 1865, -48, -65 },
  { 6, -2219, 1, 2 },
  { 5, -4130, -61, -40 },
  { 1, 2372, -66, 1 },
  { 2, -977, -15, 1 },
  { 8, -770, -2, -78 },
  { 7, 3683, 1, 27 },
  { 2, 1047, 1, 22 },
  { 5, 4306, 1, 20 },
  { 8, -613, 1, 9 },
  { 3, 3811, 1, -24 },
  { 6, 3489, 1, 6 },
  { 7, 345, 1, -82 },
  { 9, -2252, 1, 3 },
  { 9, -2802, -11, 1 },
  { 7, -2284, -21, -40 },
  { 7, -1371, -76, -57 },
  { 2, 665, -59, -75 },
  { 7, 738, 1, 7 },
  { 9, -1201, 1, 2 },
  { 1, 6896, -38, -53 },
  { 4, -2244, -49, 1 },
  { 9, 4452, 1, -79 },
  { 8, 4842, 1, -69 },
  { 8, 3798, -50, -7 },
  { 0, 2421, 1, 2 },
  { 6, -729, -98, -81 },
  { 8, 1044, -90, -91 },
  { 5, 5261, -67, -50 },
  { 1, 2192, 1, 3 },
  { 2, 1249, 1, -60 },
  { 3, 247, -103, -39 },
  { 1, 3939, -21, -54 },
  { 2, 1256, -11, 1 },
  { 8, 3897, -105, -104 },
  { 4, 2509, 1, 18 },
  { 9, 3590, 1, 13 },
  { 8, -499, 1, 3 },
  { 9, -1058, -10, 1 },
  { 6, -1321, -72, -8 },
  { 3, 285, 1, 5 },
  { 5, 2537, 1, 3 },
  { 8, 59, -94, 1 },
  { 3, -1724, -77, -93 },
  { 7, 3855, -37, -86 },
  { 0, 7169, 1, -61 },
  { 0, 3670, 1, -70 },
  { 1, -1166, -24, 1 },
  { 6, -1249, -87, -73 },
  { 2, 2963, -99, 1 },
  { 9, 4241, 1, -107 },
  { 9, 3751, -84, 1 },
  { 6, 1232, -71, -101 },
  { 9, 5676, 1, 15 },
  { 7, 4157, 1, 10 },
  { 9, 302, 1, 2 },
  { 8, 921, -80, -35 },
  { 7, 23, 1, 5 },
  { 2, 7757, 1, -71 },
  { 6, 4435, 1, 2 },
  { 6, 1828, -55, -58 },
  { 8, -2656, -62, -63 },
  { 3, -77, 1, -95 },
  { 3, -313, -83, -92 },
  { 5, 1444, 1, 2 },
  { 2, 2003, -96, -105 },
  { 1, -2073, 1, -88 },
  { 9, 1073, -41, -100 },
  { 5, 1168, -102, -106 },
  { 3, 1615, 1, 95 },
  { 1, 2929, 1, 78 },
  { 7, 5842, 1, 73 },
  { 2, 3077, 1, 65 },
  { 3, -1439, 1, 27 },
  { 8, 186, 1, 15 },
  { 2, 308, 1, 5 },
  { 4, -2254, 1, 2 },
  { 2, -3218, -35, -23 },
  { 6, 331, -76, 1 },
  { 2, -1923, -22, -2 },
  { 1, 509, 1, 7 },
  { 7, 1879, 1, 5 },
  { 7, -2954, -21, 1 },
  { 4, -2088, -57, 1 },
  { 5, 5812, 1, -62 },
  { 7, -787, -11, -63 },
  { 7, 3955, -10, -86 },
  { 1, 2024, 1, -75 },
  { 1, 1079, -60, -59 },
  { 2, -1320, 1, 2 },
  { 7, -1928, -45, -77 },
  { 5, 2256, 1, 8 },
  { 2, -559, -15, 1 },
  { 8, 980, 1, 2 },
  { 2, 935, -90, -11 },
  { 8, 1622, 1, 3 },
  { 5, -107, 1, -91 },
  { 3, -5194, -35, -38 },
  { 6, 1385, -33, -58 },
  { 0, 12884, -69, -50 },
  { 2, -2075, 1, 13 },
  { 5, -220, 1, 11 },
  { 7, -4755, -42, 1 },
  { 9, -5452, -2, 1 },
  { 5, -4334, 1, 2 },
  { 3, -432, -9, -12 },
  { 9, 2004, 1, 5 },
  { 6, -1923, 1, 3 },
  { 4, 2981, -27, 1 },
  { 3, 10, -56, -44 },
  { 9, -2179, -32, -46 },
  { 5, -2792, -10, -12 },
  { 9, 2169, -47, -64 },
  { 4, 2921, 1, 14 },
  { 7, 1287, 1, 7 },
  { 3, 544, 1, 4 },
  { 7, -1173, -49, 1 },
  { 1, -1879, 1, -26 },
  { 1, -5363, -40, -25 },
  { 9, -1866, -34, 1 },
  { 7, -2754, -43, -70 },
  { 6, -2318, 1, 2 },
  { 0, -2608, -7, -86 },
  { 7, 3248, 1, -103 },
  { 1, -4722, -31, 1 },
  { 5, 742, -89, 1 },
  { 7, 2712, -93, -99 },
  { 9, 1962, 1, 8 },
  { 9, -60, 1, 6 },
  { 3, -1188, -30, 1 },
  { 9, -1706, -20, 1 },
  { 6, 1997, 1, -65 },
  { 5, 1564, 1, -50 },
  { 7, -423, -78, -68 },
  { 0, -1439, -40, -66 },
  { 2, -1654, -61, 1 },
  { 6, 503, -98, -92 },
  { 9, 992, 1, 4 },
  { 8, 1609, 1, 2 },
  { 1, -2426, -24, -8 },
  { 2, 5467, -41, -37 },
  { 9, 3740, 1, -100 },
  { 7, 2995, 1, -94 },
  { 6, 4526, -95, -84 },
  { 3, -1727, -36, 1 },
  { 9, 4546, 1, 2 },
  { 4, -1470, -101, -88 },
  { 9, 6424, -102, -104 },
  { 9, 380, 1, 8 },
  { 0, 4862, 1, 5 },
  { 0, -1697, 1, 2 },
  { 6, -1006, -15, -77 },
  { 3, -660, 1, -81 },
  { 8, 3548, -53, -54 },
  { 2, 2259, 1, -80 },
  { 5, 6229, -74, -61 },
  { 7, 3513, 1, 5 },
  { 1, 3836, -79, 1 },
  { 9, 1838, -93, 1 },
  { 5, 2663, 1, -71 },
  { 2, -21, -82, -83 },
  { 1, 3460, 1, 2 },
  { 9, 5477, -105, -106 },
  { 5, -600, -107, -96 },
  { 7, -617, 1, 23 },
  { 1, 2725, 1, 17 },
  { 7, -2823, 1, 9 },
  { 0, 304, 1, 7 },
  { 6, -4675, 1, 4 },
  { 9, -2229, 1, -8 },
  { 9, -4340, -4, 1 },
  { 7, -4478, -7, -16 },
  { 4, -1797, 1, -48 },
  { 5, -442, -6, -13 },
  { 1, -1649, -5, -19 },
  { 4, -1720, 1, 5 },
  { 0, -233, 1, -10 },
  { 3, 2610, -14, 1 },
  { 3, 6904, 1, -17 },
  { 7, -2654, -19, -3 },
  { 2, -1508, 1, -3 },
  { 2, -1922, -1, -20 },
  { 2, -433, 1, 4 },
  { 3, 2836, 1, 2 },
  { 5, -2100, -52, -18 },
  { 3, 5056, -51, -47 },
  { 5, 3194, -21, -55 },
  { 0, 1250, 1, 9 },
  { 2, -475, 1, 4 },
  { 8, -2220, 1, -97 },
  { 7, 1842, -4, 1 },
  { 7, 2543, -29, -28 },
  { 9, -1671, -39, 1 },
  { 4, -923, 1, 2 },
  { 7, 1440, -72, -87 },
  { 9, 3665, -24, -7 },
  { 5, 3634, -85, 1 },
  { 3, 3037, -67, -73 },
  { 2, -672, 1, 59 },
  { 2, -1870, 1, 36 },
  { 8, -685, 1, 19 },
  { 8, -3868, 1, 8 },
  { 2, -3087, 1, 6 },
  { 2, -3920, 1, 4 },
  { 6, -2476, 1, -22 },
  { 3, 6330, 1, -10 },
  { 7, -3865, -9, -3 },
  { 9, -2557, -18, -14 },
  { 5, 785, -13, -47 },
  { 6, -3374, 1, 5 },
  { 2, -2717, 1, 3 },
  { 9, -667, 1, -42 },
  { 5, -3809, -7, -8 },
  { 1, 1353, -4, -3 },
  { 5, -4160, -12, 1 },
  { 9, -362, 1, 2 },
  { 4, 876, -27, -44 },
  { 3, -769, -10, 1 },
  { 3, -475, -46, -56 },
  { 7, -2378, 1, 8 },
  { 3, 3571, 1, 5 },
  { 5, -791, 1, 3 },
  { 7, -2867, -2, 1 },
  { 1, 202, -1, -45 },
  { 4, 29, -19, -12 },
  { 8, 1139, -6, 1 },
  { 0, -1677, -16, -48 },
  { 1, -2469, 1, 2 },
  { 4, -1143, -32, -47 },
  { 3, 4855, 1, -51 },
  { 7, -767, 1, 2 },
  { 1, 184, -64, -77 },
  { 0, 2153, 1, 2 },
  { 3, 3405, -66, -97 },
  { 8, -322, -35, -36 },
  { 5, -3108, 1, 4 },
  { 2, -927, 1, -2 },
  { 6, -2529, 1, -26 },
  { 3, 219, -25, -61 },
  { 7, 738, 1, 12 },
  { 2, -1640, 1, 2 },
  { 5, -252, -15, -34 },
  { 9, 297, 1, 6 },
  { 5, -1449, -20, 1 },
  { 2, -1394, 1, 2 },
  { 8, -1030, -4, -20 },
  { 1, 1331, 1, -78 },
  { 3, 8567, -43, -17 },
  { 9, 2798, 1, -3 },
  { 5, -1784, 1, -40 },
  { 2, -1159, -15, -52 },
  { 6, -1541, 1, 4 },
  { 9, -1083, 1, -86 },
  { 5, -487, 1, -28 },
  { 3, 2262, -7, -29 },
  { 8, -520, 1, -31 },
  { 3, -2349, -93, -89 },
  { 9, 970, 1, 34 },
  { 3, 10981, 1, -5 },
  { 4, -1732, 1, 15 },
  { 7, 2279, 1, 10 },
  { 7, 858, 1, -85 },
  { 9, -2535, 1, 4 },
  { 6, 1965, -39, 1 },
  { 9, -2909, -23, 1 },
  { 5, 2391, -21, -40 },
  { 0, 4739, 1, 3 },
  { 8, -458, 1, -24 },
  { 6, -1623, -72, -57 },
  { 2, 593, -74, -61 },
  { 1, -634, -10, 1 },
  { 7, 3719, 1, 2 },
  { 2, 2545, -33, -37 },
  { 3, -2286, -77, -86 },
  { 2, 1116, 1, 12 },
  { 3, -2202, 1, 5 },
  { 8, 4578, 1, -50 },
  { 5, -1249, -38, 1 },
  { 8, 1929, 1, -53 },
  { 0, 2324, -11, -90 },
  { 7, -17, 1, -81 },
  { 5, -673, 1, 2 },
  { 2, 605, -68, -11 },
  { 5, 1589, -30, 1 },
  { 9, -1125, -50, 1 },
  { 3, 1283, -65, -24 },
  { 8, -1474, -60, 1 },
  { 5, 7840, 1, -41 },
  { 6, 3351, 1, 2 },
  { 7, -1719, -54, -55 },
  { 3, -2534, -35, -80 },
  { 7, 3063, 1, 26 },
  { 2, 4734, 1, 23 },
  { 8, -806, 1, 9 },
  { 3, -4898, -75, 1 },
  { 7, 2408, 1, 6 },
  { 7, 692, 1, 4 },
  { 7, -10, 1, -59 },
  { 8, -1663, 1, -21 },
  { 2, 1995, -76, -62 },
  { 3, -375, -82, -71 },
  { 5, -985, -8, -99 },
  { 7, 1082, 1, 9 },
  { 8, 3707, 1, 7 },
  { 5, 4429, 1, 4 },
  { 2, 1203, 1, 2 },
  { 8, 2205, -49, -79 },
  { 5, -1045, -58, -63 },
  { 8, 508, 1, -70 },
  { 1, 762, -67, -73 },
  { 1, 589, -69, -7 },
  { 0, 2085, 1, -91 },
  { 3, 4297, 1, -87 },
  { 3, -811, -83, 1 },
  { 9, 5357, -93, -98 },
  { 6, 4849, 1, -71 },
  { 1, -644, -95, -84 },
  { 1, 1326, 1, 6 },
  { 0, 1885, 1, 3 },
  { 6, 939, 1, -102 },
  { 1, -2266, -104, -103 },
  { 7, 7375, 1, -88 },
  { 3, -2204, -100, -92 },
  { 3, -2864, -96, 1 },
  { 9, 4440, 1, 3 },
  { 2, 4531, 1, -101 },
  { 0, -2966, -94, -105 },
  { 3, -1427, 1, -105 },
  { 4, 3300, -107, -106 },
  { 9, 1427, 1, 85 },
  { 0, -1010, 1, 34 },
  { 5, -1970, 1, 25 },
  { 4, -2536, 1, 16 },
  { 2, -3879, 1, 4 },
  { 6, -4882, 1, -27 },
  { 9, -1333, 1, -42 },
  { 3, 3080, -8, -7 },
  { 6, -3944, 1, 3 },
  { 2, -2623, -16, 1 },
  { 7, -3287, -4, -3 },
  { 8, -1852, 1, 4 },
  { 7, -196, -14, 1 },
  { 2, -1113, 1, -25 },
  { 5, -2652, -26, -89 },
  { 3, 285, 1, 2 },
  { 6, -1407, -2, -10 },
  { 0, -2660, -7, 1 },
  { 5, -2149, -86, -15 },
  { 5, -2584, 1, 6 },
  { 2, -2115, 1, 4 },
  { 2, -5674, -44, 1 },
  { 0, -3245, 1, -22 },
  { 5, -5738, -9, -12 },
  { 6, 1620, -11, -35 },
  { 7, -2267, 1, -20 },
  { 1, 274, -1, -46 },
  { 4, -1834, 1, -40 },
  { 5, -1656, 1, 2 },
  { 3, 2842, -18, -3 },
  { 5, -1395, 1, 3 },
  { 1, 445, -39, 1 },
  { 2, 3370, -29, -77 },
  { 3, 5477, 1, -6 },
  { 5, -558, -8, -19 },
  { 3, 6124, 1, 47 },
  { 1, -5493, 1, 3 },
  { 6, -217, -85, 1 },
  { 1, -6566, -40, -31 },
  { 3, 1925, 1, 36 },
  { 7, -645, 1, 15 },
  { 1, 3322, 1, 13 },
  { 4, -1651, 1, 6 },
  { 3, -1764, 1, 3 },
  { 7, -2980, 1, -57 },
  { 0, 1480, -21, -23 },
  { 0, 210, 1, -34 },
  { 2, 3023, -43, -24 },
  { 6, 3675, 1, -38 },
  { 9, -944, 1, 3 },
  { 3, -1320, -30, 1 },
  { 8, 1328, -78, -50 },
  { 9, 941, 1, -77 },
  { 1, 475, -47, -65 },
  { 0, 1646, -53, -54 },
  { 6, -1299, 1, 2 },
  { 4, -2839, -32, -68 },
  { 6, 8554, 1, -50 },
  { 3, 554, 1, 16 },
  { 4, -1440, 1, 5 },
  { 3, -2459, 1, 3 },
  { 7, 3365, 1, -37 },
  { 5, -800, -33, -35 },
  { 7, 5860, -86, -36 },
  { 7, 7495, 1, -88 },
  { 0, 10082, 1, -41 },
  { 0, 1026, -60, 1 },
  { 9, 1078, 1, -59 },
  { 5, 3010, 1, -80 },
  { 0, 4123, 1, -93 },
  { 0, 2855, 1, 3 },
  { 9, -323, -81, 1 },
  { 6, 2135, -66, -11 },
  { 1, 1982, -91, -90 },
  { 2, 974, -74, -61 },
  { 5, 2714, 1, -55 },
  { 8, -2908, 1, 5 },
  { 3, 4659, 1, 3 },
  { 1, -1226, 1, -4 },
  { 5, 267, -13, -28 },
  { 7, -1375, -47, -24 },
  { 3, 2491, -19, -20 },
  { 1, 258, 1, 2 },
  { 2, -3142, -10, -5 },
  { 1, 1181, -17, -72 },
  { 7, 3136, 1, 36 },
  { 2, -644, 1, 13 },
  { 3, 4308, 1, 11 },
  { 9, 2640, 1, 2 },
  { 5, -2503, -56, -52 },
  { 2, -2195, 1, 3 },
  { 4, -1645, 1, -12 },
  { 0, -2140, -10, -45 },
  { 0, -1809, -61, 1 },
  { 6, 1682, 1, -2 },
  { 5, 1011, 1, -3 },
  { 5, -1048, -15, 1 },
  { 5, 792, -48, -64 },
  { 8, -567, -97, -51 },
  { 7, 1012, 1, 14 },
  { 0, 222, 1, 5 },
  { 9, 2489, 1, 3 },
  { 3, -2146, 1, -21 },
  { 5, -2319, -76, -58 },
  { 9, 3256, -71, -75 },
  { 6, 4203, 1, 7 },
  { 7, -1326, -49, 1 },
  { 1, 3424, 1, -73 },
  { 8, 235, -67, 1 },
  { 3, 799, 1, 2 },
  { 1, 2833, -69, -79 },
  { 4, -221, -70, -7 },
  { 7, -1004, -62, -63 },
  { 6, 1471, 1, 7 },
  { 7, 1916, 1, 3 },
  { 3, -49, 1, -71 },
  { 8, -134, -82, -83 },
  { 2, 2723, 1, 2 },
  { 9, 4763, -93, -98 },
  { 5, 1372, -99, -87 },
  { 8, 3111, -84, -95 },
  { 5, 5565, 1, 10 },
  { 3, -1898, 1, 3 },
  { 3, -2974, -96, 1 },
  { 1, 3336, -105, -107 },
  { 0, 556, 1, 4 },
  { 6, 1182, 1, -101 },
  { 1, 146, -104, 1 },
  { 0, -2788, -94, -103 },
  { 7, 5582, -105, 1 },
  { 8, 461, -102, -106 },
  { 6, 5542, -92, -100 },
  { 7, 1072, 1, 86 },
  { 6, 3217, 1, 77 },
  { 2, 1071, 1, 66 },
  { 6, -1781, 1, 37 },
  { 2, -2036, 1, 20 },
  { 7, -702, 1, 18 },
  { 4, -1053, 1, 13 },
  { 5, 1647, 1, -10 },
  { 9, -4482, 1, 3 },
  { 6, -2614, 1, -2 },
  { 1, -960, -4, -3 },
  { 6, -3786, 1, 5 },
  { 1, -1861, 1, 3 },
  { 9, -1865, -7, 1 },
  { 1, -6077, -42, -8 },
  { 8, 640, -3, -16 },
  { 7, -3294, -18, 1 },
  { 9, -904, 1, -47 },
  { 2, -3649, -6, -14 },
  { 6, -2802, -51, 1 },
  { 0, -4468, 1, 2 },
  { 7, -3467, -9, -12 },
  { 3, 1491, -44, -1 },
  { 0, -1620, -56, -27 },
  { 0, -3082, 1, 4 },
  { 5, -4256, 1, 2 },
  { 5, -5079, -11, -26 },
  { 5, -4110, -61, -25 },
  { 5, 135, 1, 6 },
  { 8, -1326, 1, 3 },
  { 1, 2465, 1, -40 },
  { 2, -1096, -13, -68 },
  { 3, 1631, -15, 1 },
  { 1, 3690, -19, -52 },
  { 8, -3089, -24, 1 },
  { 1, 64, 1, 2 },
  { 5, 5427, -20, -5 },
  { 7, -148, 1, 2 },
  { 2, -1251, -48, -17 },
  { 8, 1152, -4, -7 },
  { 4, -2342, 1, 12 },
  { 2, -2631, -45, 1 },
  { 6, 1442, 1, 6 },
  { 2, -390, 1, 4 },
  { 7, -1589, 1, 2 },
  { 2, -1340, -19, -43 },
  { 0, 1298, -34, -64 },
  { 0, 2076, -49, -67 },
  { 2, 683, 1, -57 },
  { 1, -444, 1, -74 },
  { 9, -3174, -23, 1 },
  { 5, 59, -21, -40 },
  { 7, -38, 1, 15 },
  { 8, 3702, 1, 12 },
  { 1, 2291, 1, 7 },
  { 6, 413, 1, 3 },
  { 5, -1420, 1, -3 },
  { 8, -1569, -46, -20 },
  { 9, -1002, 1, -65 },
  { 1, 422, 1, -30 },
  { 9, -1646, -22, -50 },
  { 9, 2978, 1, 3 },
  { 7, -1029, 1, -78 },
  { 3, -1751, -76, -77 },
  { 9, 4224, -12, -2 },
  { 1, 1750, 1, -66 },
  { 2, -2056, -47, -69 },
  { 6, 1464, -15, -79 },
  { 5, -334, 1, 3 },
  { 2, 1586, 1, -58 },
  { 1, 166, -39, -60 },
  { 9, 1525, 1, 6 },
  { 7, -3464, -24, 1 },
  { 2, 2805, 1, -72 },
  { 4, 1789, 1, 2 },
  { 8, -514, -21, -61 },
  { 2, 2105, -54, -55 },
  { 7, 700, -70, -73 },
  { 9, -1801, 1, 2 },
  { 0, -1204, -35, -38 },
  { 0, 3356, 1, 4 },
  { 7, -1107, -53, 1 },
  { 0, -283, 1, -59 },
  { 1, 3295, -75, -71 },
  { 2, 2639, 1, -80 },
  { 8, -2306, -62, -63 },
  { 2, -2337, 1, 4 },
  { 3, -1474, 1, 2 },
  { 5, 182, -35, -36 },
  { 1, -719, -32, -10 },
  { 7, 3553, 1, 25 },
  { 9, 3206, 1, 17 },
  { 5, -307, 1, 7 },
  { 4, 676, 1, -82 },
  { 2, 735, 1, 4 },
  { 6, -2469, 1, 2 },
  { 0, -2334, -86, -29 },
  { 9, -1798, -33, -89 },
  { 1, -2269, -10, -8 },
  { 1, -5501, 1, 2 },
  { 2, -990, -31, -85 },
  { 0, 1410, -28, 1 },
  { 3, -2400, 1, 4 },
  { 7, 2993, 1, 2 },
  { 2, 614, -91, -50 },
  { 8, 2537, -90, -37 },
  { 5, 6715, 1, -95 },
  { 7, 2186, -81, -93 },
  { 6, -1214, 1, 3 },
  { 3, 3800, -98, 1 },
  { 0, -1771, -97, -87 },
  { 9, 6286, 1, -103 },
  { 7, 2817, 1, -99 },
  { 2, 6677, 1, -84 },
  { 3, 160, -83, -71 },
  { 9, -276, 1, 4 },
  { 4, -1988, 1, -41 },
  { 1, -1498, -7, 1 },
  { 3, -1912, -77, -86 },
  { 3, -330, 1, -92 },
  { 1, 1168, 1, 5 },
  { 3, -2338, 1, 2 },
  { 2, 1963, -11, -100 },
  { 7, 10445, 1, -88 },
  { 0, 31, -104, -102 },
  { 1, 3296, 1, 4 },
  { 8, 4782, 1, -106 },
  { 7, 4920, 1, -101 },
  { 9, 3500, -94, -105 },
  { 8, 2867, -107, -96 },
  { 7, 2001, 1, 97 },
  { 2, -1001, 1, 46 },
  { 2, -2062, 1, 29 },
  { 5, -1720, 1, 20 },
  { 8, 3230, 1, -1 },
  { 8, 199, 1, 17 },
  { 0, -3709, 1, 6 },
  { 4, -2394, 1, 4 },
  { 6, -2775, 1, -14 },
  { 7, -5102, 1, -3 },
  { 7, -5421, -42, -7 },
  { 9, -2378, -9, -12 },
  { 7, -2979, 1, 6 },
  { 8, -3415, 1, 3 },
  { 2, -5849, -8, 1 },
  { 2, -3705, -22, -18 },
  { 5, -3222, -2, 1 },
  { 4, -2711, -4, -46 },
  { 6, -3150, -3, 1 },
  { 8, -2993, -27, 1 },
  { 6, -2286, 1, -10 },
  { 1, -402, -44, -56 },
  { 2, -3072, -77, -16 },
  { 3, 204, 1, 2 },
  { 6, -49, -12, -45 },
  { 0, 889, 1, 3 },
  { 1, -361, -6, 1 },
  { 6, -3093, -51, -47 },
  { 5, 1749, 1, 2 },
  { 0, 2261, -64, -47 },
  { 1, -1111, -19, -10 },
  { 5, -1574, 1, 7 },
  { 5, -2956, 1, 3 },
  { 6, -2570, 1, -26 },
  { 8, -1816, -25, -61 },
  { 4, -430, 1, 2 },
  { 7, 662, -15, -86 },
  { 6, -425, -40, -15 },
  { 1, -3751, -31, 1 },
  { 3, 764, -66, 1 },
  { 1, -2252, 1, 2 },
  { 2, -1988, -13, -34 },
  { 7, -1271, 1, 4 },
  { 3, 3747, 1, -48 },
  { 8, -1080, -43, 1 },
  { 4, -2653, -19, -3 },
  { 5, 931, -20, -4 },
  { 6, 2497, 1, 41 },
  { 4, 3149, 1, 18 },
  { 1, -5400, 1, 2 },
  { 2, -311, -85, -40 },
  { 0, -1289, -39, 1 },
  { 0, 5924, 1, 13 },
  { 8, -687, 1, 6 },
  { 3, 8581, 1, -17 },
  { 9, 1199, 1, 3 },
  { 1, 1193, 1, -72 },
  { 0, 1599, -21, -23 },
  { 2, 2214, -21, -71 },
  { 5, 5193, 1, 4 },
  { 3, 1601, 1, 2 },
  { 2, 800, -49, -57 },
  { 8, -478, -67, -73 },
  { 6, -856, -5, 1 },
  { 3, 944, -24, -70 },
  { 0, 7791, -74, -61 },
  { 2, 1214, 1, 18 },
  { 7, 206, 1, 13 },
  { 2, 514, 1, 10 },
  { 8, -2032, 1, 3 },
  { 6, -1261, 1, -76 },
  { 3, 4552, -68, -24 },
  { 0, 2513, 1, -65 },
  { 5, -1811, 1, 3 },
  { 9, 1144, -20, 1 },
  { 8, -343, -2, -52 },
  { 0, 891, -78, 1 },
  { 6, -1068, -7, -30 },
  { 1, -271, -11, 1 },
  { 3, -1428, -69, -50 },
  { 8, 552, 1, 2 },
  { 0, -285, -82, -81 },
  { 8, 1130, -98, 1 },
  { 8, 2150, -91, -79 },
  { 5, 1541, 1, 3 },
  { 7, 152, -58, 1 },
  { 2, 2486, -60, -83 },
  { 8, 4767, -55, -54 },
  { 9, 1129, 1, 4 },
  { 7, -1612, -53, 1 },
  { 8, 1226, -80, 1 },
  { 1, -1532, -35, -38 },
  { 1, -3444, 1, 2 },
  { 7, -953, -62, -63 },
  { 3, -4483, 1, 2 },
  { 7, 1140, -75, -84 },
  { 0, 1840, -71, -59 },
  { 9, 1624, 1, 20 },
  { 4, 818, 1, 13 },
  { 8, 551, 1, 8 },
  { 5, -2032, -10, 1 },
  { 7, 3321, 1, 5 },
  { 3, 660, 1, 3 },
  { 9, 709, 1, -8 },
  { 8, -1662, -89, -35 },
  { 8, -2897, -28, -29 },
  { 1, -1425, -32, -86 },
  { 6, -684, -7, 1 },
  { 9, -4154, -37, 1 },
  { 7, 3688, -33, 1 },
  { 5, -1008, -77, -36 },
  { 6, 5322, 1, -50 },
  { 2, 1323, 1, 3 },
  { 5, 1854, 1, -93 },
  { 6, 2732, -11, -90 },
  { 2, 4680, 1, -95 },
  { 9, 963, -41, -88 },
  { 7, 2993, 1, 4 },
  { 3, 917, 1, 2 },
  { 7, 2461, -93, -99 },
  { 2, 1468, -97, -87 },
  { 0, 3069, 1, 9 },
  { 0, -431, 1, 4 },
  { 8, 1671, 1, -107 },
  { 7, 5579, 1, -101 },
  { 9, 6285, -94, -103 },
  { 9, 3948, -96, 1 },
  { 7, 5146, -105, 1 },
  { 3, -1094, 1, -104 },
  { 3, -1632, -106, -102 },
  { 0, 8541, -92, -100 },
  { 2, -833, 1, 54 },
  { 7, -2108, 1, 24 },
  { 4, 155, 1, 17 },
  { 6, -279, 1, 14 },
  { 3, 2018, 1, 5 },
  { 8, -3731, 1, 2 },
  { 5, -428, -14, -13 },
  { 3, 133, 1, -15 },
  { 5, -6646, -42, -2 },
  { 3, 2754, 1, 2 },
  { 2, -3969, -8, -18 },
  { 7, -2760, 1, 4 },
  { 6, -4436, 1, -6 },
  { 9, -5027, -4, 1 },
  { 1, -5981, -7, -16 },
  { 5, 1255, 1, -10 },
  { 6, -2723, -3, -19 },
  { 9, 1099, 1, -45 },
  { 8, -891, -43, -19 },
  { 3, 4006, 1, -48 },
  { 3, -2096, -22, 1 },
  { 3, -865, 1, 2 },
  { 5, -5775, -9, -12 },
  { 0, -3111, -12, 1 },
  { 6, -1751, -1, -46 },
  { 2, -3129, 1, 5 },
  { 6, -888, 1, 3 },
  { 8, -3128, -27, 1 },
  { 3, 461, -10, -44 },
  { 9, -3518, -35, -36 },
  { 1, -4978, -31, 1 },
  { 3, 1747, 1, 15 },
  { 7, 2927, 1, 13 },
  { 9, -265, 1, 4 },
  { 9, -3487, 1, 2 },
  { 9, -3781, -34, -26 },
  { 5, -3808, -25, -89 },
  { 4, -2692, 1, 2 },
  { 7, 1548, -64, -86 },
  { 5, -3514, -61, 1 },
  { 9, 1403, 1, 4 },
  { 2, -1771, 1, -40 },
  { 2, -2346, 1, -66 },
  { 9, 1104, -47, -77 },
  { 0, -1395, -56, -15 },
  { 8, 1683, -32, -7 },
  { 2, -1933, 1, 3 },
  { 1, 454, -97, 1 },
  { 6, -2897, -51, -47 },
  { 7, 982, 1, 4 },
  { 9, -1696, 1, 2 },
  { 7, -545, -20, -4 },
  { 5, -2328, -52, -3 },
  { 0, -329, -29, -28 },
  { 7, 1448, 1, 46 },
  { 2, -184, 1, 10 },
  { 5, 1001, 1, 5 },
  { 7, -1088, 1, 3 },
  { 9, 1422, 1, -2 },
  { 3, -1119, -30, -20 },
  { 2, -469, -78, -68 },
  { 3, 7801, 1, 3 },
  { 2, -476, 1, -65 },
  { 7, -567, -23, -74 },
  { 0, 1816, -17, -5 },
  { 5, 1034, 1, 15 },
  { 2, 5639, 1, -84 },
  { 7, -654, 1, 6 },
  { 7, -2157, 1, 3 },
  { 4, -1819, -21, 1 },
  { 0, -1804, -11, -53 },
  { 9, -355, -38, 1 },
  { 1, 1710, -49, -76 },
  { 9, 4024, 1, -79 },
  { 1, -2482, -35, 1 },
  { 2, 1846, 1, -58 },
  { 4, -126, -39, 1 },
  { 7, -399, -75, 1 },
  { 7, 679, 1, -82 },
  { 5, 337, -60, -59 },
  { 5, 7408, 1, -61 },
  { 5, 4963, 1, 16 },
  { 1, 3105, 1, 10 },
  { 4, -87, 1, 5 },
  { 7, -549, 1, 3 },
  { 3, -1404, -57, 1 },
  { 9, -1311, -40, -21 },
  { 8, -2319, -72, -67 },
  { 1, -3398, -63, 1 },
  { 7, -780, -50, 1 },
  { 7, -61, 1, -7 },
  { 7, -449, -69, -24 },
  { 3, -3460, -71, 1 },
  { 2, 2853, 1, -71 },
  { 4, 777, -73, 1 },
  { 9, 59, -81, 1 },
  { 5, 3260, -54, -55 },
  { 6, 2712, 1, 2 },
  { 3, 988, -24, -70 },
  { 5, 6136, -62, -80 },
  { 9, 5664, 1, 26 },
  { 9, 4059, 1, 21 },
  { 5, -60, 1, 5 },
  { 1, -1849, 1, 2 },
  { 0, -2532, -8, -10 },
  { 9, 394, 1, -94 },
  { 5, -1603, -33, -77 },
  { 6, 8504, 1, -50 },
  { 1, -4454, -85, 1 },
  { 1, 2576, 1, 11 },
  { 8, 1778, 1, 4 },
  { 3, -2647, 1, 2 },
  { 7, 3401, -90, -11 },
  { 0, 4923, -91, -86 },
  { 8, 3363, 1, 5 },
  { 7, 9938, 1, -88 },
  { 6, -1837, -87, 1 },
  { 1, 703, 1, -93 },
  { 7, 3839, -37, -92 },
  { 9, -1220, -41, -95 },
  { 5, 291, -96, 1 },
  { 3, -1758, -93, -83 },
  { 3, -593, 1, -98 },
  { 8, 4823, 1, -100 },
  { 8, 1860, 1, -107 },
  { 1, 2273, -101, -105 },
  { 4, -1301, 1, 2 },
  { 7, 3125, -99, -103 },
  { 1, -3699, -104, 1 },
  { 8, 1930, -102, -106 } 
};

static const int32_t model_tree_roots[10] = { 0, 131, 263, 395, 526, 655, 786, 918, 1048, 1179 };

static const uint8_t model_leaves[428] = { 0, 0, 40, 66, 0, 0, 154, 66, 0, 0, 130, 66, 0, 0, 108, 66, 0, 0, 100, 66, 0, 0, 0, 67, 0, 0, 170, 66, 0, 0, 198, 66, 0, 0, 140, 66, 0, 0, 80, 66, 0, 0, 50, 67, 0, 0, 142, 66, 0, 0, 230, 66, 0, 0, 250, 66, 0, 0, 254, 66, 0, 0, 186, 66, 0, 0, 174, 66, 0, 0, 178, 66, 0, 0, 144, 66, 0, 0, 84, 66, 0, 0, 86, 67, 0, 0, 176, 66, 0, 0, 55, 67, 0, 0, 218, 66, 0, 0, 82, 67, 0, 0, 54, 67, 0, 0, 248, 65, 0, 0, 206, 66, 0, 0, 180, 66, 0, 0, 76, 66, 0, 0, 118, 67, 0, 0, 92, 66, 0, 0, 39, 67, 0, 0, 32, 67, 0, 0, 16, 67, 0, 0, 12, 67, 0, 0, 64, 67, 0, 0, 22, 67, 0, 0, 138, 67, 0, 0, 72, 67, 0, 0, 92, 67, 0, 0, 202, 66, 0, 0, 158, 66, 0, 0, 44, 66, 0, 0, 72, 66, 0, 0, 60, 66, 0, 0, 236, 66, 0, 0, 204, 66, 0, 0, 26, 67, 0, 0, 168, 66, 0, 0, 216, 66, 0, 0, 132, 66, 0, 0, 40, 67, 0, 0, 44, 67, 0, 0, 42, 67, 0, 0, 48, 66, 0, 0, 23, 67, 0, 0, 36, 67, 0, 0, 107, 67, 0, 0, 117, 67, 0, 0, 91, 67, 0, 0, 43, 67, 0, 0, 53, 67, 0, 0, 208, 66, 0, 0, 222, 66, 0, 0, 49, 67, 0, 0, 13, 67, 0, 0, 184, 66, 0, 0, 200, 66, 0, 0, 134, 66, 0, 0, 120, 67, 0, 0, 6, 67, 0, 0, 15, 67, 0, 0, 102, 67, 0, 128, 128, 67, 0, 0, 28, 67, 0, 0, 4, 67, 0, 0, 194, 66, 0, 0, 1, 67, 0, 0, 3, 67, 0, 0, 69, 67, 0, 0, 97, 67, 0, 0, 104, 67, 0, 128, 136, 67, 0, 0, 151, 67, 0, 0, 242, 66, 0, 0, 38, 67, 0, 0, 114, 67, 0, 0, 56, 67, 0, 0, 46, 67, 0, 0, 244, 66, 0, 0, 58, 67, 0, 0, 70, 67, 0, 128, 140, 67, 0, 0, 136, 67, 0, 0, 166, 67, 0, 0, 47, 67, 0, 0, 74, 67, 0, 0, 67, 67, 0, 0, 89, 67, 0, 0, 129, 67, 0, 0, 154, 67, 0, 0, 140, 67, 0, 0, 137, 67, 0, 128, 137, 67, 0, 0, 155, 67, 0, 128, 151, 67 };

EmlTrees model = {
        1309,
        (EmlTreesNode *)(model_nodes),	  
        10,
        (int32_t *)(model_tree_roots),
        428,
        (uint8_t *)(model_leaves),
        32,
        10,
        0,
    };

static inline int32_t model_tree_0(const int16_t *features, int32_t features_length) {
          if (features[9] < -1584) {
              if (features[7] < -1978) {
                  if (features[6] < 1675) {
                      if (features[9] < -3775) {
                          if (features[1] < -3443) {
                              return 42.000000f;
                          } else {
                              if (features[9] < -6417) {
                                  if (features[7] < -4233) {
                                      return 77.000000f;
                                  } else {
                                      return 65.000000f;
                                  }
                              } else {
                                  if (features[3] < 11298) {
                                      return 59.000000f;
                                  } else {
                                      return 57.000000f;
                                  }
                              }
                          }
                      } else {
                          if (features[6] < -1058) {
                              if (features[2] < -4308) {
                                  if (features[8] < -995) {
                                      if (features[6] < -3291) {
                                          if (features[1] < -6012) {
                                              return 85.000000f;
                                          } else {
                                              return 99.000000f;
                                          }
                                      } else {
                                          if (features[0] < -1755) {
                                              return 70.000000f;
                                          } else {
                                              return 52.000000f;
                                          }
                                      }
                                  } else {
                                      return 128.000000f;
                                  }
                              } else {
                                  if (features[3] < 2121) {
                                      if (features[9] < -2784) {
                                          return 178.000000f;
                                      } else {
                                          if (features[0] < -4319) {
                                              return 71.000000f;
                                          } else {
                                              if (features[7] < -3550) {
                                                  return 115.000000f;
                                              } else {
                                                  if (features[9] < -1763) {
                                                      return 125.000000f;
                                                  } else {
                                                      return 127.000000f;
                                                  }
                                              }
                                          }
                                      }
                                  } else {
                                      if (features[8] < 2201) {
                                          if (features[6] < -4738) {
                                              return 87.000000f;
                                          } else {
                                              return 89.000000f;
                                          }
                                      } else {
                                          return 93.000000f;
                                      }
                                  }
                              }
                          } else {
                              if (features[8] < 968) {
                                  return 72.000000f;
                              } else {
                                  return 53.000000f;
                              }
                          }
                      }
                  } else {
                      if (features[7] < -4271) {
                          return 214.000000f;
                      } else {
                          if (features[0] < -1907) {
                              return 88.000000f;
                          } else {
                              if (features[9] < -3192) {
                                  return 183.000000f;
                              } else {
                                  return 109.000000f;
                              }
                          }
                      }
                  }
              } else {
                  if (features[2] < -328) {
                      if (features[5] < -3151) {
                          if (features[1] < -1630) {
                              return 210.000000f;
                          } else {
                              return 182.000000f;
                          }
                      } else {
                          if (features[6] < -2482) {
                              if (features[7] < 1758) {
                                  if (features[9] < -2900) {
                                      return 31.000000f;
                                  } else {
                                      if (features[7] < -458) {
                                          return 53.000000f;
                                      } else {
                                          return 59.000000f;
                                      }
                                  }
                              } else {
                                  if (features[0] < -619) {
                                      if (features[8] < 1850) {
                                          return 90.000000f;
                                      } else {
                                          return 85.000000f;
                                      }
                                  } else {
                                      return 103.000000f;
                                  }
                              }
                          } else {
                              if (features[4] < -1196) {
                                  if (features[1] < -4135) {
                                      return 246.000000f;
                                  } else {
                                      if (features[6] < -347) {
                                          return 55.000000f;
                                      } else {
                                          if (features[1] < 1508) {
                                              if (features[3] < 554) {
                                                  return 167.000000f;
                                              } else {
                                                  return 160.000000f;
                                              }
                                          } else {
                                              if (features[9] < -3577) {
                                                  return 144.000000f;
                                              } else {
                                                  return 140.000000f;
                                              }
                                          }
                                      }
                                  }
                              } else {
                                  return 51.000000f;
                              }
                          }
                      }
                  } else {
                      if (features[3] < -1463) {
                          if (features[6] < 468) {
                              return 52.000000f;
                          } else {
                              if (features[6] < 4857) {
                                  if (features[2] < 2248) {
                                      return 150.000000f;
                                  } else {
                                      return 144.000000f;
                                  }
                              } else {
                                  return 192.000000f;
                              }
                          }
                      } else {
                          if (features[5] < -140) {
                              return 276.000000f;
                          } else {
                              if (features[4] < 2765) {
                                  return 200.000000f;
                              } else {
                                  return 220.000000f;
                              }
                          }
                      }
                  }
              }
          } else {
              if (features[7] < 1533) {
                  if (features[7] < -1514) {
                      if (features[1] < 1282) {
                          if (features[2] < 204) {
                              if (features[5] < 100) {
                                  if (features[7] < -3382) {
                                      if (features[6] < -1851) {
                                          return 101.000000f;
                                      } else {
                                          return 79.000000f;
                                      }
                                  } else {
                                      if (features[3] < -167) {
                                          if (features[4] < -1342) {
                                              return 50.000000f;
                                          } else {
                                              return 47.000000f;
                                          }
                                      } else {
                                          return 43.000000f;
                                      }
                                  }
                              } else {
                                  if (features[2] < -1557) {
                                      if (features[9] < 3617) {
                                          return 118.000000f;
                                      } else {
                                          return 102.000000f;
                                      }
                                  } else {
                                      return 65.000000f;
                                  }
                              }
                          } else {
                              if (features[6] < 854) {
                                  return 154.000000f;
                              } else {
                                  return 84.000000f;
                              }
                          }
                      } else {
                          if (features[2] < -1536) {
                              if (features[1] < 2696) {
                                  if (features[1] < 1994) {
                                      return 72.000000f;
                                  } else {
                                      return 65.000000f;
                                  }
                              } else {
                                  if (features[6] < -1612) {
                                      if (features[1] < 3177) {
                                          return 118.000000f;
                                      } else {
                                          return 108.000000f;
                                      }
                                  } else {
                                      return 71.000000f;
                                  }
                              }
                          } else {
                              if (features[0] < -2679) {
                                  return 66.000000f;
                              } else {
                                  if (features[1] < 2830) {
                                      return 200.000000f;
                                  } else {
                                      if (features[2] < 1333) {
                                          return 168.000000f;
                                      } else {
                                          if (features[2] < 1698) {
                                              return 172.000000f;
                                          } else {
                                              return 170.000000f;
                                          }
                                      }
                                  }
                              }
                          }
                      }
                  } else {
                      if (features[1] < 2184) {
                          if (features[2] < -2385) {
                              return 44.000000f;
                          } else {
                              if (features[3] < -2633) {
                                  if (features[4] < -1212) {
                                      return 151.000000f;
                                  } else {
                                      if (features[2] < 1625) {
                                          if (features[8] < -4019) {
                                              return 235.000000f;
                                          } else {
                                              return 245.000000f;
                                          }
                                      } else {
                                          return 164.000000f;
                                      }
                                  }
                              } else {
                                  if (features[7] < -697) {
                                      if (features[0] < -2593) {
                                          return 219.000000f;
                                      } else {
                                          if (features[3] < -1147) {
                                              if (features[8] < -1838) {
                                                  return 171.000000f;
                                              } else {
                                                  return 181.000000f;
                                              }
                                          } else {
                                              if (features[2] < -447) {
                                                  return 104.000000f;
                                              } else {
                                                  return 111.000000f;
                                              }
                                          }
                                      }
                                  } else {
                                      if (features[7] < 29) {
                                          if (features[2] < -1867) {
                                              return 177.000000f;
                                          } else {
                                              if (features[4] < -690) {
                                                  return 141.000000f;
                                              } else {
                                                  if (features[2] < -150) {
                                                      return 92.000000f;
                                                  } else {
                                                      return 100.000000f;
                                                  }
                                              }
                                          }
                                      } else {
                                          if (features[0] < 3510) {
                                              return 85.000000f;
                                          } else {
                                              return 67.000000f;
                                          }
                                      }
                                  }
                              }
                          }
                      } else {
                          if (features[2] < 8273) {
                              if (features[4] < 2001) {
                                  if (features[5] < 4048) {
                                      if (features[9] < 2622) {
                                          return 214.000000f;
                                      } else {
                                          return 248.000000f;
                                      }
                                  } else {
                                      if (features[6] < -2562) {
                                          return 134.000000f;
                                      } else {
                                          if (features[0] < 6138) {
                                              return 143.000000f;
                                          } else {
                                              if (features[9] < -625) {
                                                  return 219.000000f;
                                              } else {
                                                  return 230.000000f;
                                              }
                                          }
                                      }
                                  }
                              } else {
                                  if (features[1] < 3425) {
                                      if (features[1] < 2393) {
                                          if (features[2] < 541) {
                                              return 109.000000f;
                                          } else {
                                              return 257.000000f;
                                          }
                                      } else {
                                          if (features[8] < -1385) {
                                              return 156.000000f;
                                          } else {
                                              if (features[3] < -4288) {
                                                  return 77.000000f;
                                              } else {
                                                  if (features[5] < -1047) {
                                                      if (features[8] < 950) {
                                                          return 127.000000f;
                                                      } else {
                                                          return 132.000000f;
                                                      }
                                                  } else {
                                                      if (features[2] < -576) {
                                                          return 97.000000f;
                                                      } else {
                                                          return 129.000000f;
                                                      }
                                                  }
                                              }
                                          }
                                      }
                                  } else {
                                      if (features[6] < 4439) {
                                          if (features[1] < 4081) {
                                              if (features[0] < 78) {
                                                  return 225.000000f;
                                              } else {
                                                  return 232.000000f;
                                              }
                                          } else {
                                              return 197.000000f;
                                          }
                                      } else {
                                          return 131.000000f;
                                      }
                                  }
                              }
                          } else {
                              if (features[9] < 3435) {
                                  return 248.000000f;
                              } else {
                                  return 273.000000f;
                              }
                          }
                      }
                  }
              } else {
                  if (features[9] < 3852) {
                      if (features[1] < 3491) {
                          if (features[1] < -5459) {
                              return 302.000000f;
                          } else {
                              if (features[6] < -2108) {
                                  if (features[8] < -1022) {
                                      return 52.000000f;
                                  } else {
                                      if (features[5] < -618) {
                                          return 121.000000f;
                                      } else {
                                          return 166.000000f;
                                      }
                                  }
                              } else {
                                  if (features[9] < 1131) {
                                      if (features[7] < 9181) {
                                          if (features[8] < 3488) {
                                              if (features[9] < 676) {
                                                  if (features[0] < 5673) {
                                                      if (features[8] < 979) {
                                                          if (features[2] < -1618) {
                                                              return 184.000000f;
                                                          } else {
                                                              if (features[5] < 1211) {
                                                                  return 178.000000f;
                                                              } else {
                                                                  return 174.000000f;
                                                              }
                                                          }
                                                      } else {
                                                          return 132.000000f;
                                                      }
                                                  } else {
                                                      return 121.000000f;
                                                  }
                                              } else {
                                                  if (features[4] < -326) {
                                                      return 99.000000f;
                                                  } else {
                                                      return 122.000000f;
                                                  }
                                              }
                                          } else {
                                              return 84.000000f;
                                          }
                                      } else {
                                          return 242.000000f;
                                      }
                                  } else {
                                      if (features[1] < -1774) {
                                          return 186.000000f;
                                      } else {
                                          if (features[2] < 2114) {
                                              return 198.000000f;
                                          } else {
                                              if (features[0] < 5809) {
                                                  return 281.000000f;
                                              } else {
                                                  return 272.000000f;
                                              }
                                          }
                                      }
                                  }
                              }
                          }
                      } else {
                          if (features[0] < 4168) {
                              return 332.000000f;
                          } else {
                              return 198.000000f;
                          }
                      }
                  } else {
                      if (features[7] < 3183) {
                          if (features[1] < -502) {
                              return 175.000000f;
                          } else {
                              if (features[9] < 5664) {
                                  return 202.000000f;
                              } else {
                                  return 195.000000f;
                              }
                          }
                      } else {
                          if (features[6] < 4095) {
                              if (features[2] < 5867) {
                                  if (features[2] < 3918) {
                                      if (features[5] < 946) {
                                          if (features[0] < -944) {
                                              return 280.000000f;
                                          } else {
                                              if (features[1] < 2892) {
                                                  return 274.000000f;
                                              } else {
                                                  return 275.000000f;
                                              }
                                          }
                                      } else {
                                          return 308.000000f;
                                      }
                                  } else {
                                      if (features[2] < 4658) {
                                          return 310.000000f;
                                      } else {
                                          return 303.000000f;
                                      }
                                  }
                              } else {
                                  return 258.000000f;
                              }
                          } else {
                              return 217.000000f;
                          }
                      }
                  }
              }
          }
        }
        

static inline int32_t model_tree_1(const int16_t *features, int32_t features_length) {
          if (features[7] < -2476) {
              if (features[3] < -1262) {
                  if (features[8] < -3931) {
                      return 88.000000f;
                  } else {
                      if (features[3] < -2468) {
                          return 214.000000f;
                      } else {
                          if (features[5] < -1918) {
                              return 178.000000f;
                          } else {
                              return 183.000000f;
                          }
                      }
                  }
              } else {
                  if (features[4] < 777) {
                      if (features[9] < -3648) {
                          if (features[2] < -851) {
                              if (features[9] < -4026) {
                                  if (features[3] < 2055) {
                                      return 77.000000f;
                                  } else {
                                      if (features[7] < -3806) {
                                          return 59.000000f;
                                      } else {
                                          return 65.000000f;
                                      }
                                  }
                              } else {
                                  if (features[1] < 369) {
                                      return 85.000000f;
                                  } else {
                                      return 93.000000f;
                                  }
                              }
                          } else {
                              return 57.000000f;
                          }
                      } else {
                          if (features[9] < -1067) {
                              if (features[3] < 2763) {
                                  if (features[0] < 1428) {
                                      if (features[3] < 2216) {
                                          if (features[0] < -1678) {
                                              return 127.000000f;
                                          } else {
                                              if (features[8] < -974) {
                                                  return 115.000000f;
                                              } else {
                                                  return 109.000000f;
                                              }
                                          }
                                      } else {
                                          if (features[1] < -1345) {
                                              return 99.000000f;
                                          } else {
                                              return 89.000000f;
                                          }
                                      }
                                  } else {
                                      return 72.000000f;
                                  }
                              } else {
                                  return 128.000000f;
                              }
                          } else {
                              if (features[1] < -5030) {
                                  return 101.000000f;
                              } else {
                                  if (features[3] < 2680) {
                                      return 79.000000f;
                                  } else {
                                      return 72.000000f;
                                  }
                              }
                          }
                      }
                  } else {
                      if (features[8] < 4505) {
                          if (features[0] < -725) {
                              if (features[5] < -3054) {
                                  if (features[0] < -4610) {
                                      return 70.000000f;
                                  } else {
                                      return 71.000000f;
                                  }
                              } else {
                                  return 47.000000f;
                              }
                          } else {
                              if (features[6] < -333) {
                                  return 102.000000f;
                              } else {
                                  return 71.000000f;
                              }
                          }
                      } else {
                          return 42.000000f;
                      }
                  }
              }
          } else {
              if (features[2] < 1390) {
                  if (features[2] < -2240) {
                      if (features[7] < 2762) {
                          if (features[6] < -884) {
                              if (features[3] < 211) {
                                  if (features[1] < 931) {
                                      return 44.000000f;
                                  } else {
                                      return 52.000000f;
                                  }
                              } else {
                                  if (features[7] < -621) {
                                      if (features[2] < -3778) {
                                          if (features[7] < -2203) {
                                              return 52.000000f;
                                          } else {
                                              return 43.000000f;
                                          }
                                      } else {
                                          if (features[6] < -4586) {
                                              return 65.000000f;
                                          } else {
                                              if (features[8] < -936) {
                                                  return 125.000000f;
                                              } else {
                                                  return 108.000000f;
                                              }
                                          }
                                      }
                                  } else {
                                      return 31.000000f;
                                  }
                              }
                          } else {
                              if (features[6] < 237) {
                                  if (features[6] < -313) {
                                      return 132.000000f;
                                  } else {
                                      return 118.000000f;
                                  }
                              } else {
                                  return 50.000000f;
                              }
                          }
                      } else {
                          if (features[7] < 4163) {
                              if (features[0] < 717) {
                                  return 175.000000f;
                              } else {
                                  return 144.000000f;
                              }
                          } else {
                              if (features[6] < 1065) {
                                  return 55.000000f;
                              } else {
                                  return 140.000000f;
                              }
                          }
                      }
                  } else {
                      if (features[7] < 127) {
                          if (features[1] < 1600) {
                              if (features[5] < -3851) {
                                  return 219.000000f;
                              } else {
                                  if (features[4] < 3239) {
                                      if (features[1] < -6344) {
                                          return 200.000000f;
                                      } else {
                                          if (features[3] < 3458) {
                                              if (features[9] < 3918) {
                                                  if (features[7] < -548) {
                                                      if (features[5] < 473) {
                                                          return 160.000000f;
                                                      } else {
                                                          if (features[6] < 1182) {
                                                              return 154.000000f;
                                                          } else {
                                                              return 151.000000f;
                                                          }
                                                      }
                                                  } else {
                                                      return 141.000000f;
                                                  }
                                              } else {
                                                  return 104.000000f;
                                              }
                                          } else {
                                              return 87.000000f;
                                          }
                                      }
                                  } else {
                                      if (features[6] < 4529) {
                                          if (features[7] < -1365) {
                                              if (features[9] < -1628) {
                                                  if (features[2] < -513) {
                                                      return 53.000000f;
                                                  } else {
                                                      return 51.000000f;
                                                  }
                                              } else {
                                                  if (features[5] < 1926) {
                                                      return 65.000000f;
                                                  } else {
                                                      return 84.000000f;
                                                  }
                                              }
                                          } else {
                                              if (features[9] < -1467) {
                                                  return 53.000000f;
                                              } else {
                                                  if (features[7] < -674) {
                                                      return 111.000000f;
                                                  } else {
                                                      if (features[3] < -442) {
                                                          return 100.000000f;
                                                      } else {
                                                          return 92.000000f;
                                                      }
                                                  }
                                              }
                                          }
                                      } else {
                                          return 150.000000f;
                                      }
                                  }
                              }
                          } else {
                              if (features[7] < -962) {
                                  if (features[2] < -393) {
                                      if (features[8] < -520) {
                                          if (features[6] < -691) {
                                              if (features[4] < -1274) {
                                                  return 118.000000f;
                                              } else {
                                                  return 200.000000f;
                                              }
                                          } else {
                                              return 77.000000f;
                                          }
                                      } else {
                                          if (features[6] < -1232) {
                                              return 66.000000f;
                                          } else {
                                              return 97.000000f;
                                          }
                                      }
                                  } else {
                                      if (features[2] < 1065) {
                                          if (features[8] < -885) {
                                              return 156.000000f;
                                          } else {
                                              return 168.000000f;
                                          }
                                      } else {
                                          return 214.000000f;
                                      }
                                  }
                              } else {
                                  if (features[6] < -399) {
                                      if (features[7] < -530) {
                                          return 177.000000f;
                                      } else {
                                          return 109.000000f;
                                      }
                                  } else {
                                      if (features[2] < 711) {
                                          return 230.000000f;
                                      } else {
                                          return 257.000000f;
                                      }
                                  }
                              }
                          }
                      } else {
                          if (features[8] < 3795) {
                              if (features[8] < 1303) {
                                  if (features[2] < -939) {
                                      if (features[3] < 3424) {
                                          if (features[3] < -56) {
                                              if (features[3] < -1746) {
                                                  return 127.000000f;
                                              } else {
                                                  if (features[8] < -3591) {
                                                      if (features[8] < -4416) {
                                                          return 182.000000f;
                                                      } else {
                                                          return 184.000000f;
                                                      }
                                                  } else {
                                                      if (features[1] < -5145) {
                                                          return 246.000000f;
                                                      } else {
                                                          return 210.000000f;
                                                      }
                                                  }
                                              }
                                          } else {
                                              if (features[0] < -2350) {
                                                  return 121.000000f;
                                              } else {
                                                  return 90.000000f;
                                              }
                                          }
                                      } else {
                                          if (features[1] < -357) {
                                              return 103.000000f;
                                          } else {
                                              return 59.000000f;
                                          }
                                      }
                                  } else {
                                      if (features[4] < -2411) {
                                          if (features[0] < 1230) {
                                              if (features[5] < -1238) {
                                                  return 276.000000f;
                                              } else {
                                                  return 280.000000f;
                                              }
                                          } else {
                                              return 302.000000f;
                                          }
                                      } else {
                                          if (features[8] < -396) {
                                              if (features[2] < -658) {
                                                  return 198.000000f;
                                              } else {
                                                  if (features[6] < 1833) {
                                                      return 225.000000f;
                                                  } else {
                                                      return 235.000000f;
                                                  }
                                              }
                                          } else {
                                              if (features[3] < -2259) {
                                                  if (features[1] < 1256) {
                                                      return 178.000000f;
                                                  } else {
                                                      return 174.000000f;
                                                  }
                                              } else {
                                                  if (features[9] < 3851) {
                                                      return 197.000000f;
                                                  } else {
                                                      return 202.000000f;
                                                  }
                                              }
                                          }
                                      }
                                  }
                              } else {
                                  if (features[3] < -2324) {
                                      if (features[6] < 1039) {
                                          return 167.000000f;
                                      } else {
                                          if (features[5] < 482) {
                                              return 129.000000f;
                                          } else {
                                              return 122.000000f;
                                          }
                                      }
                                  } else {
                                      return 85.000000f;
                                  }
                              }
                          } else {
                              if (features[2] < 893) {
                                  return 85.000000f;
                              } else {
                                  return 84.000000f;
                              }
                          }
                      }
                  }
              } else {
                  if (features[7] < 4282) {
                      if (features[1] < -1656) {
                          if (features[4] < -2418) {
                              if (features[6] < -71) {
                                  return 99.000000f;
                              } else {
                                  return 52.000000f;
                              }
                          } else {
                              if (features[2] < 4724) {
                                  if (features[0] < 797) {
                                      return 144.000000f;
                                  } else {
                                      if (features[6] < 5757) {
                                          if (features[7] < 2781) {
                                              return 181.000000f;
                                          } else {
                                              return 186.000000f;
                                          }
                                      } else {
                                          return 171.000000f;
                                      }
                                  }
                              } else {
                                  return 217.000000f;
                              }
                          }
                      } else {
                          if (features[9] < 2046) {
                              if (features[1] < 1582) {
                                  if (features[6] < 2863) {
                                      if (features[8] < 3101) {
                                          return 245.000000f;
                                      } else {
                                          return 272.000000f;
                                      }
                                  } else {
                                      return 192.000000f;
                                  }
                              } else {
                                  if (features[5] < 8135) {
                                      if (features[2] < 2926) {
                                          if (features[8] < -1237) {
                                              return 134.000000f;
                                          } else {
                                              if (features[9] < 1852) {
                                                  if (features[5] < 2091) {
                                                      return 172.000000f;
                                                  } else {
                                                      return 170.000000f;
                                                  }
                                              } else {
                                                  return 164.000000f;
                                              }
                                          }
                                      } else {
                                          if (features[5] < -217) {
                                              return 132.000000f;
                                          } else {
                                              return 131.000000f;
                                          }
                                      }
                                  } else {
                                      return 219.000000f;
                                  }
                              }
                          } else {
                              if (features[5] < 4581) {
                                  if (features[7] < 3010) {
                                      if (features[1] < -308) {
                                          if (features[5] < 972) {
                                              return 195.000000f;
                                          } else {
                                              return 166.000000f;
                                          }
                                      } else {
                                          if (features[6] < 1796) {
                                              if (features[6] < -100) {
                                                  if (features[1] < 4515) {
                                                      return 232.000000f;
                                                  } else {
                                                      return 248.000000f;
                                                  }
                                              } else {
                                                  return 198.000000f;
                                              }
                                          } else {
                                              if (features[4] < -287) {
                                                  return 273.000000f;
                                              } else {
                                                  return 248.000000f;
                                              }
                                          }
                                      }
                                  } else {
                                      if (features[1] < 3416) {
                                          if (features[1] < 2014) {
                                              return 281.000000f;
                                          } else {
                                              return 275.000000f;
                                          }
                                      } else {
                                          return 303.000000f;
                                      }
                                  }
                              } else {
                                  if (features[8] < 7) {
                                      return 143.000000f;
                                  } else {
                                      return 67.000000f;
                                  }
                              }
                          }
                      }
                  } else {
                      if (features[0] < 5868) {
                          if (features[3] < -3154) {
                              return 332.000000f;
                          } else {
                              if (features[9] < 3859) {
                                  return 242.000000f;
                              } else {
                                  if (features[6] < 2016) {
                                      if (features[8] < 2856) {
                                          return 258.000000f;
                                      } else {
                                          return 274.000000f;
                                      }
                                  } else {
                                      if (features[5] < 211) {
                                          return 275.000000f;
                                      } else {
                                          if (features[7] < 6022) {
                                              return 310.000000f;
                                          } else {
                                              return 308.000000f;
                                          }
                                      }
                                  }
                              }
                          }
                      } else {
                          if (features[3] < -1303) {
                              return 121.000000f;
                          } else {
                              return 220.000000f;
                          }
                      }
                  }
              }
          }
        }
        

static inline int32_t model_tree_2(const int16_t *features, int32_t features_length) {
          if (features[2] < 1403) {
              if (features[2] < 882) {
                  if (features[2] < -776) {
                      if (features[7] < 1288) {
                          if (features[5] < -2762) {
                              if (features[2] < -2670) {
                                  if (features[4] < -2411) {
                                      if (features[7] < -3340) {
                                          if (features[8] < -2097) {
                                              if (features[5] < -6077) {
                                                  return 101.000000f;
                                              } else {
                                                  return 99.000000f;
                                              }
                                          } else {
                                              return 85.000000f;
                                          }
                                      } else {
                                          return 125.000000f;
                                      }
                                  } else {
                                      if (features[5] < -4733) {
                                          if (features[3] < -3695) {
                                              return 88.000000f;
                                          } else {
                                              if (features[2] < -3914) {
                                                  return 70.000000f;
                                              } else {
                                                  return 71.000000f;
                                              }
                                          }
                                      } else {
                                          return 43.000000f;
                                      }
                                  }
                              } else {
                                  if (features[7] < -2159) {
                                      if (features[8] < -1203) {
                                          return 65.000000f;
                                      } else {
                                          return 77.000000f;
                                      }
                                  } else {
                                      if (features[6] < -2180) {
                                          if (features[6] < -2509) {
                                              if (features[2] < -1225) {
                                                  return 219.000000f;
                                              } else {
                                                  return 210.000000f;
                                              }
                                          } else {
                                              return 182.000000f;
                                          }
                                      } else {
                                          if (features[8] < 39) {
                                              return 77.000000f;
                                          } else {
                                              return 127.000000f;
                                          }
                                      }
                                  }
                              }
                          } else {
                              if (features[2] < -1954) {
                                  if (features[9] < -3683) {
                                      if (features[6] < -2733) {
                                          if (features[9] < -5244) {
                                              if (features[6] < -4377) {
                                                  return 59.000000f;
                                              } else {
                                                  return 65.000000f;
                                              }
                                          } else {
                                              return 93.000000f;
                                          }
                                      } else {
                                          if (features[0] < -1636) {
                                              return 42.000000f;
                                          } else {
                                              return 31.000000f;
                                          }
                                      }
                                  } else {
                                      if (features[5] < 1506) {
                                          if (features[1] < -1059) {
                                              if (features[0] < -1017) {
                                                  return 128.000000f;
                                              } else {
                                                  if (features[1] < -2779) {
                                                      return 115.000000f;
                                                  } else {
                                                      return 118.000000f;
                                                  }
                                              }
                                          } else {
                                              if (features[1] < 2016) {
                                                  if (features[5] < -645) {
                                                      if (features[6] < -1702) {
                                                          return 44.000000f;
                                                      } else {
                                                          if (features[0] < 209) {
                                                              return 47.000000f;
                                                          } else {
                                                              return 50.000000f;
                                                          }
                                                      }
                                                  } else {
                                                      if (features[8] < 718) {
                                                          return 72.000000f;
                                                      } else {
                                                          if (features[0] < 920) {
                                                              return 102.000000f;
                                                          } else {
                                                              return 104.000000f;
                                                          }
                                                      }
                                                  }
                                              } else {
                                                  if (features[7] < -2848) {
                                                      if (features[8] < -3289) {
                                                          return 89.000000f;
                                                      } else {
                                                          return 71.000000f;
                                                      }
                                                  } else {
                                                      if (features[2] < -2565) {
                                                          return 132.000000f;
                                                      } else {
                                                          if (features[1] < 3584) {
                                                              return 118.000000f;
                                                          } else {
                                                              return 108.000000f;
                                                          }
                                                      }
                                                  }
                                              }
                                          }
                                      } else {
                                          if (features[3] < 2501) {
                                              return 72.000000f;
                                          } else {
                                              return 52.000000f;
                                          }
                                      }
                                  }
                              } else {
                                  if (features[5] < 1506) {
                                      if (features[3] < 1153) {
                                          if (features[4] < -2856) {
                                              if (features[7] < -3680) {
                                                  return 79.000000f;
                                              } else {
                                                  if (features[5] < -1666) {
                                                      return 127.000000f;
                                                  } else {
                                                      return 160.000000f;
                                                  }
                                              }
                                          } else {
                                              if (features[3] < -690) {
                                                  return 97.000000f;
                                              } else {
                                                  if (features[2] < -1323) {
                                                      return 177.000000f;
                                                  } else {
                                                      return 200.000000f;
                                                  }
                                              }
                                          }
                                      } else {
                                          if (features[7] < -1266) {
                                              return 66.000000f;
                                          } else {
                                              return 53.000000f;
                                          }
                                      }
                                  } else {
                                      if (features[5] < 2413) {
                                          if (features[4] < -1109) {
                                              return 59.000000f;
                                          } else {
                                              return 65.000000f;
                                          }
                                      } else {
                                          return 87.000000f;
                                      }
                                  }
                              }
                          }
                      } else {
                          if (features[7] < 1543) {
                              return 246.000000f;
                          } else {
                              if (features[5] < -3568) {
                                  return 52.000000f;
                              } else {
                                  if (features[9] < 2204) {
                                      if (features[6] < -635) {
                                          if (features[9] < -3603) {
                                              return 55.000000f;
                                          } else {
                                              if (features[9] < -1696) {
                                                  if (features[0] < -463) {
                                                      if (features[5] < -2663) {
                                                          return 85.000000f;
                                                      } else {
                                                          return 90.000000f;
                                                      }
                                                  } else {
                                                      return 103.000000f;
